<?xml version="1.0"?>
<opencv_storage>
<stage3>
  <maxWeakCount>20</maxWeakCount>
  <stageThreshold>-1.2812628746032715e+00</stageThreshold>
  <weakClassifiers>
    <_>
      <internalNodes>
        0 -1 248 -661398824 -775225278 1346457817 -707313507 -1860042614
        -2147483488 286430122 -79458149</internalNodes>
      <leafValues>
        -1.9525869190692902e-01 6.9379621744155884e-01</leafValues></_>
    <_>
      <internalNodes>
        0 -1 2742 -267922734 -775421952 2013284560 1402929224 -267721078
        -1741028352 822125274 -928005989</internalNodes>
      <leafValues>
        -1.6181148588657379e-01 6.5844029188156128e-01</leafValues></_>
    <_>
      <internalNodes>
        0 -1 732 -217345840 1480720464 -1876262759 -241889232 -938495336
        -1040187260 588677771 -1156873457</internalNodes>
      <leafValues>
        -1.7806781828403473e-01 6.5985798835754395e-01</leafValues></_>
    <_>
      <internalNodes>
        0 -1 736 -748423984 -641644416 -2139078447 1930518530
        -1844870998 -1937760256 33591963 -208944661</internalNodes>
      <leafValues>
        -1.4498576521873474e-01 7.7305269241333008e-01</leafValues></_>
    <_>
      <internalNodes>
        0 -1 2296 -794765096 -787464160 1358973072 285803140 -2139058032
        -2008508800 33655464 -620003317</internalNodes>
      <leafValues>
        -1.8198893964290619e-01 5.8216679096221924e-01</leafValues></_>
    <_>
      <internalNodes>
        0 -1 228 -259272486 -786759480 -1855926255 -773238575
        -1744789334 -904920192 -1342074645 -76834085</internalNodes>
      <leafValues>
        -1.2010685354471207e-01 8.2286226749420166e-01</leafValues></_>
    <_>
      <internalNodes>
        0 -1 60 -803290392 2055569480 1359216697 1359020099 -2146262886
        1049890 -779963733 -1727298913</internalNodes>
      <leafValues>
        -1.4250068366527557e-01 6.4205294847488403e-01</leafValues></_>
    <_>
      <internalNodes>
        0 -1 2730 -251477860 -780140508 807932624 -784235517 -268394360
        17041478 -1861712486 -1876180849</internalNodes>
      <leafValues>
        -1.7452645301818848e-01 5.6991255283355713e-01</leafValues></_>
    <_>
      <internalNodes>
        0 -1 1611 -288376758 1355744536 1086935313 1436012608 36406050
        -2113918652 5284391 -1007946797</internalNodes>
      <leafValues>
        -1.9256582856178284e-01 4.9709671735763550e-01</leafValues></_>
    <_>
      <internalNodes>
        0 -1 2478 -242560872 -749724544 -1566267235 352387150 268471944
        408971140 1359512250 -1823832933</internalNodes>
      <leafValues>
        -1.8463662266731262e-01 5.5908006429672241e-01</leafValues></_>
    <_>
      <internalNodes>
        0 -1 296 -552415022 -653983608 335573201 1397760002 -100630304
        -2113880016 570474747 -74729301</internalNodes>
      <leafValues>
        -1.2416279315948486e-01 6.7202955484390259e-01</leafValues></_>
    <_>
      <internalNodes>
        0 -1 2102 -741093166 -620576384 52692437 1364218381 -1940221824
        -1908014052 352706779 -1685093745</internalNodes>
      <leafValues>
        -1.3013368844985962e-01 6.7534631490707397e-01</leafValues></_>
    <_>
      <internalNodes>
        0 -1 676 -754498558 -930794304 159454161 1396916248 1242531842
        71978272 140552970 -261368310</internalNodes>
      <leafValues>
        -2.3633168637752533e-01 4.1243198513984680e-01</leafValues></_>
    <_>
      <internalNodes>
        0 -1 2198 -126883769 -754110880 -865189673 291062561 -507344404
        534529 68133539 -489708285</internalNodes>
      <leafValues>
        -1.3821531832218170e-01 6.1411643028259277e-01</leafValues></_>
    <_>
      <internalNodes>
        0 -1 2247 -700200518 425800822 -63431496 -1855898176 -2038507807
        624326452 207972504 -1205608757</internalNodes>
      <leafValues>
        -2.0742906630039215e-01 5.0008457899093628e-01</leafValues></_>
    <_>
      <internalNodes>
        0 -1 1085 -339029942 1600931474 352329430 1365545513 -1257897332
        4484728 678467803 -868155254</internalNodes>
      <leafValues>
        -2.4074544012546539e-01 4.3763020634651184e-01</leafValues></_>
    <_>
      <internalNodes>
        0 -1 1602 -361348414 -758082008 2541651 1394102313 -1822259838
        -868403328 542154427 -817139062</internalNodes>
      <leafValues>
        -1.5429803729057312e-01 5.9006422758102417e-01</leafValues></_>
    <_>
      <internalNodes>
        0 -1 2659 -869609266 -750770751 192087506 318842049 -736713596
        -465551536 1107797675 -1953786677</internalNodes>
      <leafValues>
        -1.5950791537761688e-01 6.3931596279144287e-01</leafValues></_>
    <_>
      <internalNodes>
        0 -1 1503 -418651761 -772069332 641326097 1363903234 1554707498
        1081782048 336000162 -762842829</internalNodes>
      <leafValues>
        -1.5814274549484253e-01 5.9387886524200439e-01</leafValues></_>
    <_>
      <internalNodes>
        0 -1 164 -228593022 -83123186 -2108264237 1635212932 -2060803922
        -1978905024 1073996558 -741638053</internalNodes>
      <leafValues>
        -1.5648664534091949e-01 5.9460002183914185e-01</leafValues></_></weakClassifiers></stage3>
</opencv_storage>
