<?xml version="1.0"?>
<opencv_storage>
<stage0>
  <maxWeakCount>8</maxWeakCount>
  <stageThreshold>-1.7525383234024048e+00</stageThreshold>
  <weakClassifiers>
    <_>
      <internalNodes>
        0 -1 2424 -2147352576 0 16 268437504 0 0 -2130706288 -2147352574</internalNodes>
      <leafValues>
        -6.0850816965103149e-01 4.6825924515724182e-01</leafValues></_>
    <_>
      <internalNodes>
        0 -1 296 -805142336 -796917760 16 1358954496 32896 0 553652392
        -1291648885</internalNodes>
      <leafValues>
        -3.7364512681961060e-01 5.6352257728576660e-01</leafValues></_>
    <_>
      <internalNodes>
        0 -1 208 -805142336 -771227520 3146769 -784072576 33554560
        -2147483648 587383434 -1862074366</internalNodes>
      <leafValues>
        -3.2073554396629333e-01 5.1988351345062256e-01</leafValues></_>
    <_>
      <internalNodes>
        0 -1 1929 -804618048 1342177288 -2145381872 287113236 134250656
        512 1090440 -2004155894</internalNodes>
      <leafValues>
        -3.3726644515991211e-01 4.9107325077056885e-01</leafValues></_>
    <_>
      <internalNodes>
        0 -1 2720 -803028992 1879179264 268445776 352583680 -804749184
        -2146958336 268436104 -2012544885</internalNodes>
      <leafValues>
        -2.5291725993156433e-01 5.0148010253906250e-01</leafValues></_>
    <_>
      <internalNodes>
        0 -1 1932 -83836688 -792722240 134244404 -1862270975 201885824
        16924672 268440466 -2130509741</internalNodes>
      <leafValues>
        -2.7083441615104675e-01 4.4684424996376038e-01</leafValues></_>
    <_>
      <internalNodes>
        0 -1 676 -620011518 -1073414044 20005121 1364541440 1644658690
        -536870912 2532106 -487599470</internalNodes>
      <leafValues>
        -2.5467866659164429e-01 4.6637833118438721e-01</leafValues></_>
    <_>
      <internalNodes>
        0 -1 2298 -234696616 1360592896 1075843285 295632917 -1324183416
        -1534584304 268741772 -1692708817</internalNodes>
      <leafValues>
        -1.6229234635829926e-01 5.6504452228546143e-01</leafValues></_></weakClassifiers></stage0>
</opencv_storage>
