<?xml version="1.0"?>
<opencv_storage>
<stage4>
  <maxWeakCount>17</maxWeakCount>
  <stageThreshold>-1.5824009180068970e+00</stageThreshold>
  <weakClassifiers>
    <_>
      <internalNodes>
        0 -1 32 -744296230 -775937912 272 1426128921 -1878875992
        -1476395008 687976603 -605333349</internalNodes>
      <leafValues>
        -1.7808219790458679e-01 8.7177598476409912e-01</leafValues></_>
    <_>
      <internalNodes>
        0 -1 280 -125644582 -796704640 266711 1359171793 -1962745694
        -1073577984 2018038747 -104078886</internalNodes>
      <leafValues>
        -1.4879247546195984e-01 8.2260912656784058e-01</leafValues></_>
    <_>
      <internalNodes>
        0 -1 2575 -267726632 -266272768 180354 -1660485597 -1023172462
        -805300192 -2003652421 -1148481398</internalNodes>
      <leafValues>
        -1.5322113037109375e-01 8.0581802129745483e-01</leafValues></_>
    <_>
      <internalNodes>
        0 -1 664 -764440510 -203833328 1107398672 -787808047 -1870552344
        -2130505472 -1828695381 -83132257</internalNodes>
      <leafValues>
        -1.7484325170516968e-01 7.4878388643264771e-01</leafValues></_>
    <_>
      <internalNodes>
        0 -1 348 -758134608 1427637396 805310481 -779419619 50496128
        -2080373504 319866539 -778071925</internalNodes>
      <leafValues>
        -1.6282357275485992e-01 7.5126057863235474e-01</leafValues></_>
    <_>
      <internalNodes>
        0 -1 2642 -771624824 -644578040 31600851 1607696417 -1871609726
        140827012 -2076927558 -1416425333</internalNodes>
      <leafValues>
        -1.5870830416679382e-01 7.4026668071746826e-01</leafValues></_>
    <_>
      <internalNodes>
        0 -1 2297 -922095406 -640055292 268767505 319367707 -1809834856
        -1307574236 -2129432102 -1711062981</internalNodes>
      <leafValues>
        -1.6181924939155579e-01 6.8704068660736084e-01</leafValues></_>
    <_>
      <internalNodes>
        0 -1 2056 -768929774 -788487456 -2145095355 1342271617
        -2012044632 4341891 -1761164150 -223667701</internalNodes>
      <leafValues>
        -2.0423159003257751e-01 5.9960687160491943e-01</leafValues></_>
    <_>
      <internalNodes>
        0 -1 1446 -234228300 -784228352 -1543090091 285314200 142125520
        -1056674016 386437514 -1991540213</internalNodes>
      <leafValues>
        -1.6921211779117584e-01 7.0787811279296875e-01</leafValues></_>
    <_>
      <internalNodes>
        0 -1 58 -1012145792 1359028369 1660700167 1898031137 543149719
        643171780 1074007755 1113802339</internalNodes>
      <leafValues>
        -2.8796726465225220e-01 4.4064342975616455e-01</leafValues></_>
    <_>
      <internalNodes>
        0 -1 368 -703967024 -359523200 33554673 -645577728 -528170870
        -1035562872 1610654891 -1992604021</internalNodes>
      <leafValues>
        -1.8301835656166077e-01 6.7825162410736084e-01</leafValues></_>
    <_>
      <internalNodes>
        0 -1 1649 -755740088 -224388456 11272223 1133248523 1081136520
        439698762 722605464 46830026</internalNodes>
      <leafValues>
        -2.8238663077354431e-01 4.4552597403526306e-01</leafValues></_>
    <_>
      <internalNodes>
        0 -1 2092 -9711383 -651222885 1645483137 285347890 1309065344
        101460482 -1039464926 -117192021</internalNodes>
      <leafValues>
        -1.9396243989467621e-01 6.8322449922561646e-01</leafValues></_>
    <_>
      <internalNodes>
        0 -1 1084 -668273926 -794754048 618830589 1397163061 -498823008
        -1472170938 336639134 -1960078822</internalNodes>
      <leafValues>
        -1.6789047420024872e-01 8.0702590942382812e-01</leafValues></_>
    <_>
      <internalNodes>
        0 -1 576 -230436616 -799342456 -1610002151 1906123787
        -1605752184 -2005707264 -852385621 -752122853</internalNodes>
      <leafValues>
        -1.3723663985729218e-01 8.0565840005874634e-01</leafValues></_>
    <_>
      <internalNodes>
        0 -1 2715 -191112992 -1038008320 67511329 -738156423 -247765828
        -2079030832 -687618153 1476633755</internalNodes>
      <leafValues>
        -2.6217842102050781e-01 4.8335623741149902e-01</leafValues></_>
    <_>
      <internalNodes>
        0 -1 1948 -584347438 -1056890799 856764705 1429405697 -800096088
        -771459994 286393995 -2013016053</internalNodes>
      <leafValues>
        -1.8361242115497589e-01 6.6775989532470703e-01</leafValues></_></weakClassifiers></stage4>
</opencv_storage>
