<?xml version="1.0"?>
<opencv_storage>
<stage6>
  <maxWeakCount>7</maxWeakCount>
  <stageThreshold>-1.5454542636871338e+00</stageThreshold>
  <weakClassifiers>
    <_>
      <internalNodes>
        0 -1 2558 -805257214 -1862139904 268435456 151060485 -1073741696
        -2146957824 33920 -620001205</internalNodes>
      <leafValues>
        -3.3577388525009155e-01 9.2712742090225220e-01</leafValues></_>
    <_>
      <internalNodes>
        0 -1 2048 -1072263156 -1543436254 754231400 1493303297 37490240
        146552148 270565522 537854606</internalNodes>
      <leafValues>
        -3.7910071015357971e-01 7.3344969749450684e-01</leafValues></_>
    <_>
      <internalNodes>
        0 -1 356 -805171128 -1876885504 42467345 1097007116 8421512
        -2147478264 68165842 -930601845</internalNodes>
      <leafValues>
        -3.4120708703994751e-01 8.7244611978530884e-01</leafValues></_>
    <_>
      <internalNodes>
        0 -1 2447 -1873784623 18956834 539501604 18876432 67240089
        -1940504974 -1533803518 -1303789368</internalNodes>
      <leafValues>
        -3.5842981934547424e-01 7.6576822996139526e-01</leafValues></_>
    <_>
      <internalNodes>
        0 -1 2526 1359151242 269035553 640052064 855682083 -1005548408
        -2077730972 1077249154 -2113814526</internalNodes>
      <leafValues>
        -3.7423133850097656e-01 8.0524110794067383e-01</leafValues></_>
    <_>
      <internalNodes>
        0 -1 446 -794533504 268576352 620404256 811670048 -1906753384
        74852180 11538946 38273034</internalNodes>
      <leafValues>
        -5.0333815813064575e-01 6.1125421524047852e-01</leafValues></_>
    <_>
      <internalNodes>
        0 -1 351 -754892654 27299846 543695008 469830659 45089824
        404370432 637570180 -106820984</internalNodes>
      <leafValues>
        -4.3284580111503601e-01 7.8729337453842163e-01</leafValues></_></weakClassifiers></stage6>
</opencv_storage>
