<?xml version="1.0"?>
<opencv_storage>
<stage2>
  <maxWeakCount>21</maxWeakCount>
  <stageThreshold>-1.6628577709197998e+00</stageThreshold>
  <weakClassifiers>
    <_>
      <internalNodes>
        0 -1 555 -744490242 1597523975 941429657 352656135 771998186
        219813204 322127855 1392762863</internalNodes>
      <leafValues>
        -2.8143954277038574e-01 4.5579567551612854e-01</leafValues></_>
    <_>
      <internalNodes>
        0 -1 1032 -796737384 -788528920 4113 -788053944 -1879042944
        6291456 50340282 -1156906997</internalNodes>
      <leafValues>
        -2.3858471214771271e-01 5.2028769254684448e-01</leafValues></_>
    <_>
      <internalNodes>
        0 -1 264 -250883886 -774045568 1343231065 -782548773 -1828682872
        -1996488640 119466 -73678182</internalNodes>
      <leafValues>
        -1.4525879919528961e-01 7.2783952951431274e-01</leafValues></_>
    <_>
      <internalNodes>
        0 -1 2720 -268177280 -249495488 268446544 -1848310771 -397885312
        -1610612720 -2113762646 -519364469</internalNodes>
      <leafValues>
        -2.2423690557479858e-01 5.3597867488861084e-01</leafValues></_>
    <_>
      <internalNodes>
        0 -1 2294 -805125998 -1329053676 620779536 287117312 -1173846896
        262208 -2142142293 -1156888469</internalNodes>
      <leafValues>
        -1.9107404351234436e-01 5.0009447336196899e-01</leafValues></_>
    <_>
      <internalNodes>
        0 -1 2738 -805125424 1478493216 155697 -788463597 -1944936320
        -2012213248 541073560 -1449426693</internalNodes>
      <leafValues>
        -1.9925807416439056e-01 5.2530479431152344e-01</leafValues></_>
    <_>
      <internalNodes>
        0 -1 0 -117259584 -763314038 271102101 1439498245 -2122151806
        -2147481600 285328107 -1592589813</internalNodes>
      <leafValues>
        -1.8257433176040649e-01 5.2249151468276978e-01</leafValues></_>
    <_>
      <internalNodes>
        0 -1 2106 -217399104 -754970496 -1841133039 285212688
        -1069505920 -2147212992 54794922 -1976891637</internalNodes>
      <leafValues>
        -2.2551523149013519e-01 4.6309605240821838e-01</leafValues></_>
    <_>
      <internalNodes>
        0 -1 1797 -6561094 -263714678 -259128582 -771739502 -735969152
        67162787 1380925440 -805060385</internalNodes>
      <leafValues>
        -2.1428292989730835e-01 4.4322252273559570e-01</leafValues></_>
    <_>
      <internalNodes>
        0 -1 208 -775175486 -677560192 292574239 -787676937 -1602186616
        -1879048064 -482098533 -610336293</internalNodes>
      <leafValues>
        -1.1972375214099884e-01 6.7995798587799072e-01</leafValues></_>
    <_>
      <internalNodes>
        0 -1 1976 -640433992 -779908988 270557401 -652648248 285311112
        84171912 -1996193653 -618970981</internalNodes>
      <leafValues>
        -1.5151025354862213e-01 6.1733222007751465e-01</leafValues></_>
    <_>
      <internalNodes>
        0 -1 2098 -83111526 -669450176 1472492081 -652138444 -1543077240
        -1601028864 106087679 -78921573</internalNodes>
      <leafValues>
        -1.3404087722301483e-01 7.1554541587829590e-01</leafValues></_>
    <_>
      <internalNodes>
        0 -1 308 -514858294 1966052424 188773397 1364131841 -1051286878
        -1574829024 3580618 -478416317</internalNodes>
      <leafValues>
        -1.6524527966976166e-01 5.5550354719161987e-01</leafValues></_>
    <_>
      <internalNodes>
        0 -1 1653 -1073559366 -788026240 876937304 1427838096 1208008928
        -2147088408 678547675 -887418870</internalNodes>
      <leafValues>
        -1.7934860289096832e-01 5.1816004514694214e-01</leafValues></_>
    <_>
      <internalNodes>
        0 -1 1680 -748445560 -586743648 811131986 299045899 -1239906936
        -2129260920 -1778327397 -2062819189</internalNodes>
      <leafValues>
        -1.2219358980655670e-01 6.0465794801712036e-01</leafValues></_>
    <_>
      <internalNodes>
        0 -1 2757 -779894656 1373153288 597726425 -786725955 -200769400
        1410572 1347069098 -1718635349</internalNodes>
      <leafValues>
        -1.4485126733779907e-01 6.2169092893600464e-01</leafValues></_>
    <_>
      <internalNodes>
        0 -1 2036 -88358702 -207265628 1436573851 -785963835 -1438396012
        -1876688680 -2029996037 -1022668581</internalNodes>
      <leafValues>
        -1.3618551194667816e-01 6.1028921604156494e-01</leafValues></_>
    <_>
      <internalNodes>
        0 -1 2092 -71313221 51066265 -1810738140 -669495134 -600694640
        872433667 103876272 -250086013</internalNodes>
      <leafValues>
        -1.8059705197811127e-01 4.6341368556022644e-01</leafValues></_>
    <_>
      <internalNodes>
        0 -1 2116 -628369194 -804641082 -1049570051 1404765833
        -633827184 -2060448000 268469163 -1961164277</internalNodes>
      <leafValues>
        -1.8007160723209381e-01 5.4715442657470703e-01</leafValues></_>
    <_>
      <internalNodes>
        0 -1 2230 -651767680 -726329212 165049621 1436634848 -1573416814
        -1970401502 590446827 -1970581425</internalNodes>
      <leafValues>
        -1.7806224524974823e-01 4.9474290013313293e-01</leafValues></_>
    <_>
      <internalNodes>
        0 -1 360 -805055864 -184547904 546046481 1562509724 -1708915493
        553785216 671613576 318967939</internalNodes>
      <leafValues>
        -2.7433046698570251e-01 3.2733705639839172e-01</leafValues></_></weakClassifiers></stage2>
</opencv_storage>
