<?xml version="1.0"?>
<opencv_storage>
<cascade>
  <stageType>BOOST</stageType>
  <featureType>LBP</featureType>
  <height>24</height>
  <width>14</width>
  <stageParams>
    <boostType>GAB</boostType>
    <minHitRate>9.9500000476837158e-01</minHitRate>
    <maxFalseAlarm>5.0000000000000000e-01</maxFalseAlarm>
    <weightTrimRate>9.4999999999999996e-01</weightTrimRate>
    <maxDepth>1</maxDepth>
    <maxWeakCount>100</maxWeakCount></stageParams>
  <featureParams>
    <maxCatCount>256</maxCatCount>
    <featSize>1</featSize></featureParams>
  <stageNum>8</stageNum>
  <stages>
    <!-- stage 0 -->
    <_>
      <maxWeakCount>8</maxWeakCount>
      <stageThreshold>-1.7525383234024048e+00</stageThreshold>
      <weakClassifiers>
        <_>
          <internalNodes>
            0 -1 74 -2147352576 0 16 268437504 0 0 -2130706288
            -2147352574</internalNodes>
          <leafValues>
            -6.0850816965103149e-01 4.6825924515724182e-01</leafValues></_>
        <_>
          <internalNodes>
            0 -1 10 -805142336 -796917760 16 1358954496 32896 0
            553652392 -1291648885</internalNodes>
          <leafValues>
            -3.7364512681961060e-01 5.6352257728576660e-01</leafValues></_>
        <_>
          <internalNodes>
            0 -1 5 -805142336 -771227520 3146769 -784072576 33554560
            -2147483648 587383434 -1862074366</internalNodes>
          <leafValues>
            -3.2073554396629333e-01 5.1988351345062256e-01</leafValues></_>
        <_>
          <internalNodes>
            0 -1 45 -804618048 1342177288 -2145381872 287113236
            134250656 512 1090440 -2004155894</internalNodes>
          <leafValues>
            -3.3726644515991211e-01 4.9107325077056885e-01</leafValues></_>
        <_>
          <internalNodes>
            0 -1 84 -803028992 1879179264 268445776 352583680 -804749184
            -2146958336 268436104 -2012544885</internalNodes>
          <leafValues>
            -2.5291725993156433e-01 5.0148010253906250e-01</leafValues></_>
        <_>
          <internalNodes>
            0 -1 46 -83836688 -792722240 134244404 -1862270975 201885824
            16924672 268440466 -2130509741</internalNodes>
          <leafValues>
            -2.7083441615104675e-01 4.4684424996376038e-01</leafValues></_>
        <_>
          <internalNodes>
            0 -1 24 -620011518 -1073414044 20005121 1364541440
            1644658690 -536870912 2532106 -487599470</internalNodes>
          <leafValues>
            -2.5467866659164429e-01 4.6637833118438721e-01</leafValues></_>
        <_>
          <internalNodes>
            0 -1 71 -234696616 1360592896 1075843285 295632917
            -1324183416 -1534584304 268741772 -1692708817</internalNodes>
          <leafValues>
            -1.6229234635829926e-01 5.6504452228546143e-01</leafValues></_></weakClassifiers></_>
    <!-- stage 1 -->
    <_>
      <maxWeakCount>16</maxWeakCount>
      <stageThreshold>-1.4075716733932495e+00</stageThreshold>
      <weakClassifiers>
        <_>
          <internalNodes>
            0 -1 20 -202378786 1943012148 553262835 321593743 1764479164
            285727 540749994 213307</internalNodes>
          <leafValues>
            -3.9337423443794250e-01 4.0840762853622437e-01</leafValues></_>
        <_>
          <internalNodes>
            0 -1 88 -804597632 1342177280 671090704 1368195200
            -2147441528 170918912 -1341087608 -1207238517</internalNodes>
          <leafValues>
            -2.6991695165634155e-01 5.4323726892471313e-01</leafValues></_>
        <_>
          <internalNodes>
            0 -1 10 -805121840 -653721464 268439632 1393762304
            -1878883712 32 -1325395782 -74776437</internalNodes>
          <leafValues>
            -2.2087976336479187e-01 6.0836714506149292e-01</leafValues></_>
        <_>
          <internalNodes>
            0 -1 17 -634728240 -792655744 369102864 1360461840
            -2097119104 67371524 35697066 -1157414774</internalNodes>
          <leafValues>
            -2.3529961705207825e-01 5.4269582033157349e-01</leafValues></_>
        <_>
          <internalNodes>
            0 -1 9 -792543014 -590348160 1880117489 1368527056 32896
            -2146435072 -1610571526 -207945574</internalNodes>
          <leafValues>
            -2.1903020143508911e-01 5.6188845634460449e-01</leafValues></_>
        <_>
          <internalNodes>
            0 -1 62 -792541184 -796906496 1078991888 289472512
            -1610579838 269615172 587858600 -2147287038</internalNodes>
          <leafValues>
            -2.6176226139068604e-01 4.1920894384384155e-01</leafValues></_>
        <_>
          <internalNodes>
            0 -1 91 -796753728 1384187008 1646334200 285806740
            -2113363808 148 268996810 -1995733941</internalNodes>
          <leafValues>
            -2.1849797666072845e-01 4.9010509252548218e-01</leafValues></_>
        <_>
          <internalNodes>
            0 -1 46 -83698464 -795867968 1073883957 -1727004655
            -1945597246 -1325266816 -1560210757 -1962733421</internalNodes>
          <leafValues>
            -2.0108179748058319e-01 5.1828503608703613e-01</leafValues></_>
        <_>
          <internalNodes>
            0 -1 64 -226246654 -729283582 403761811 -784122675
            -1322085744 -1868296192 -1711144293 -1978972661</internalNodes>
          <leafValues>
            -1.6369473934173584e-01 5.3428459167480469e-01</leafValues></_>
        <_>
          <internalNodes>
            0 -1 58 -654118694 -787873664 1446137905 319885857 721453264
            -1975123920 539011834 -1156857605</internalNodes>
          <leafValues>
            -1.6891905665397644e-01 5.8759671449661255e-01</leafValues></_>
        <_>
          <internalNodes>
            0 -1 26 -73665862 -22233976 1075839104 1344442530 1287786640
            167772224 806354946 -788285221</internalNodes>
          <leafValues>
            -2.3524120450019836e-01 4.1821044683456421e-01</leafValues></_>
        <_>
          <internalNodes>
            0 -1 5 -202649382 -641171320 7345169 1900888279 -1574796672
            -1878917120 -1874671989 -608992997</internalNodes>
          <leafValues>
            -1.4322057366371155e-01 6.3934451341629028e-01</leafValues></_>
        <_>
          <internalNodes>
            0 -1 85 -746401664 -714473472 4272209 1359545352 -2063433590
            -1039138231 1644275082 -99909558</internalNodes>
          <leafValues>
            -1.3500966131687164e-01 5.7937967777252197e-01</leafValues></_>
        <_>
          <internalNodes>
            0 -1 59 -800399152 -799342396 -1625271942 -1253866800
            -1605889920 16785712 2130741979 -1680645973</internalNodes>
          <leafValues>
            -1.9269295036792755e-01 4.8990291357040405e-01</leafValues></_>
        <_>
          <internalNodes>
            0 -1 49 -608705174 1132399232 1155096007 -783561367
            -2113765373 -1570091392 111338370 -1031290301</internalNodes>
          <leafValues>
            -1.7701056599617004e-01 4.7387799620628357e-01</leafValues></_>
        <_>
          <internalNodes>
            0 -1 44 -758480816 1933246496 1426072761 -585025343
            1327670148 -1778383356 -1682795622 -1726798309</internalNodes>
          <leafValues>
            -1.8936389684677124e-01 4.6856823563575745e-01</leafValues></_></weakClassifiers></_>
    <!-- stage 2 -->
    <_>
      <maxWeakCount>21</maxWeakCount>
      <stageThreshold>-1.6628577709197998e+00</stageThreshold>
      <weakClassifiers>
        <_>
          <internalNodes>
            0 -1 21 -744490242 1597523975 941429657 352656135 771998186
            219813204 322127855 1392762863</internalNodes>
          <leafValues>
            -2.8143954277038574e-01 4.5579567551612854e-01</leafValues></_>
        <_>
          <internalNodes>
            0 -1 32 -796737384 -788528920 4113 -788053944 -1879042944
            6291456 50340282 -1156906997</internalNodes>
          <leafValues>
            -2.3858471214771271e-01 5.2028769254684448e-01</leafValues></_>
        <_>
          <internalNodes>
            0 -1 8 -250883886 -774045568 1343231065 -782548773
            -1828682872 -1996488640 119466 -73678182</internalNodes>
          <leafValues>
            -1.4525879919528961e-01 7.2783952951431274e-01</leafValues></_>
        <_>
          <internalNodes>
            0 -1 84 -268177280 -249495488 268446544 -1848310771
            -397885312 -1610612720 -2113762646 -519364469</internalNodes>
          <leafValues>
            -2.2423690557479858e-01 5.3597867488861084e-01</leafValues></_>
        <_>
          <internalNodes>
            0 -1 68 -805125998 -1329053676 620779536 287117312
            -1173846896 262208 -2142142293 -1156888469</internalNodes>
          <leafValues>
            -1.9107404351234436e-01 5.0009447336196899e-01</leafValues></_>
        <_>
          <internalNodes>
            0 -1 87 -805125424 1478493216 155697 -788463597 -1944936320
            -2012213248 541073560 -1449426693</internalNodes>
          <leafValues>
            -1.9925807416439056e-01 5.2530479431152344e-01</leafValues></_>
        <_>
          <internalNodes>
            0 -1 0 -117259584 -763314038 271102101 1439498245
            -2122151806 -2147481600 285328107 -1592589813</internalNodes>
          <leafValues>
            -1.8257433176040649e-01 5.2249151468276978e-01</leafValues></_>
        <_>
          <internalNodes>
            0 -1 57 -217399104 -754970496 -1841133039 285212688
            -1069505920 -2147212992 54794922 -1976891637</internalNodes>
          <leafValues>
            -2.2551523149013519e-01 4.6309605240821838e-01</leafValues></_>
        <_>
          <internalNodes>
            0 -1 43 -6561094 -263714678 -259128582 -771739502 -735969152
            67162787 1380925440 -805060385</internalNodes>
          <leafValues>
            -2.1428292989730835e-01 4.4322252273559570e-01</leafValues></_>
        <_>
          <internalNodes>
            0 -1 5 -775175486 -677560192 292574239 -787676937
            -1602186616 -1879048064 -482098533 -610336293</internalNodes>
          <leafValues>
            -1.1972375214099884e-01 6.7995798587799072e-01</leafValues></_>
        <_>
          <internalNodes>
            0 -1 48 -640433992 -779908988 270557401 -652648248 285311112
            84171912 -1996193653 -618970981</internalNodes>
          <leafValues>
            -1.5151025354862213e-01 6.1733222007751465e-01</leafValues></_>
        <_>
          <internalNodes>
            0 -1 55 -83111526 -669450176 1472492081 -652138444
            -1543077240 -1601028864 106087679 -78921573</internalNodes>
          <leafValues>
            -1.3404087722301483e-01 7.1554541587829590e-01</leafValues></_>
        <_>
          <internalNodes>
            0 -1 11 -514858294 1966052424 188773397 1364131841
            -1051286878 -1574829024 3580618 -478416317</internalNodes>
          <leafValues>
            -1.6524527966976166e-01 5.5550354719161987e-01</leafValues></_>
        <_>
          <internalNodes>
            0 -1 41 -1073559366 -788026240 876937304 1427838096
            1208008928 -2147088408 678547675 -887418870</internalNodes>
          <leafValues>
            -1.7934860289096832e-01 5.1816004514694214e-01</leafValues></_>
        <_>
          <internalNodes>
            0 -1 42 -748445560 -586743648 811131986 299045899
            -1239906936 -2129260920 -1778327397 -2062819189</internalNodes>
          <leafValues>
            -1.2219358980655670e-01 6.0465794801712036e-01</leafValues></_>
        <_>
          <internalNodes>
            0 -1 90 -779894656 1373153288 597726425 -786725955
            -200769400 1410572 1347069098 -1718635349</internalNodes>
          <leafValues>
            -1.4485126733779907e-01 6.2169092893600464e-01</leafValues></_>
        <_>
          <internalNodes>
            0 -1 51 -88358702 -207265628 1436573851 -785963835
            -1438396012 -1876688680 -2029996037 -1022668581</internalNodes>
          <leafValues>
            -1.3618551194667816e-01 6.1028921604156494e-01</leafValues></_>
        <_>
          <internalNodes>
            0 -1 54 -71313221 51066265 -1810738140 -669495134 -600694640
            872433667 103876272 -250086013</internalNodes>
          <leafValues>
            -1.8059705197811127e-01 4.6341368556022644e-01</leafValues></_>
        <_>
          <internalNodes>
            0 -1 60 -628369194 -804641082 -1049570051 1404765833
            -633827184 -2060448000 268469163 -1961164277</internalNodes>
          <leafValues>
            -1.8007160723209381e-01 5.4715442657470703e-01</leafValues></_>
        <_>
          <internalNodes>
            0 -1 65 -651767680 -726329212 165049621 1436634848
            -1573416814 -1970401502 590446827 -1970581425</internalNodes>
          <leafValues>
            -1.7806224524974823e-01 4.9474290013313293e-01</leafValues></_>
        <_>
          <internalNodes>
            0 -1 16 -805055864 -184547904 546046481 1562509724
            -1708915493 553785216 671613576 318967939</internalNodes>
          <leafValues>
            -2.7433046698570251e-01 3.2733705639839172e-01</leafValues></_></weakClassifiers></_>
    <!-- stage 3 -->
    <_>
      <maxWeakCount>20</maxWeakCount>
      <stageThreshold>-1.2812628746032715e+00</stageThreshold>
      <weakClassifiers>
        <_>
          <internalNodes>
            0 -1 7 -661398824 -775225278 1346457817 -707313507
            -1860042614 -2147483488 286430122 -79458149</internalNodes>
          <leafValues>
            -1.9525869190692902e-01 6.9379621744155884e-01</leafValues></_>
        <_>
          <internalNodes>
            0 -1 88 -267922734 -775421952 2013284560 1402929224
            -267721078 -1741028352 822125274 -928005989</internalNodes>
          <leafValues>
            -1.6181148588657379e-01 6.5844029188156128e-01</leafValues></_>
        <_>
          <internalNodes>
            0 -1 27 -217345840 1480720464 -1876262759 -241889232
            -938495336 -1040187260 588677771 -1156873457</internalNodes>
          <leafValues>
            -1.7806781828403473e-01 6.5985798835754395e-01</leafValues></_>
        <_>
          <internalNodes>
            0 -1 28 -748423984 -641644416 -2139078447 1930518530
            -1844870998 -1937760256 33591963 -208944661</internalNodes>
          <leafValues>
            -1.4498576521873474e-01 7.7305269241333008e-01</leafValues></_>
        <_>
          <internalNodes>
            0 -1 69 -794765096 -787464160 1358973072 285803140
            -2139058032 -2008508800 33655464 -620003317</internalNodes>
          <leafValues>
            -1.8198893964290619e-01 5.8216679096221924e-01</leafValues></_>
        <_>
          <internalNodes>
            0 -1 6 -259272486 -786759480 -1855926255 -773238575
            -1744789334 -904920192 -1342074645 -76834085</internalNodes>
          <leafValues>
            -1.2010685354471207e-01 8.2286226749420166e-01</leafValues></_>
        <_>
          <internalNodes>
            0 -1 3 -803290392 2055569480 1359216697 1359020099
            -2146262886 1049890 -779963733 -1727298913</internalNodes>
          <leafValues>
            -1.4250068366527557e-01 6.4205294847488403e-01</leafValues></_>
        <_>
          <internalNodes>
            0 -1 86 -251477860 -780140508 807932624 -784235517
            -268394360 17041478 -1861712486 -1876180849</internalNodes>
          <leafValues>
            -1.7452645301818848e-01 5.6991255283355713e-01</leafValues></_>
        <_>
          <internalNodes>
            0 -1 39 -288376758 1355744536 1086935313 1436012608 36406050
            -2113918652 5284391 -1007946797</internalNodes>
          <leafValues>
            -1.9256582856178284e-01 4.9709671735763550e-01</leafValues></_>
        <_>
          <internalNodes>
            0 -1 77 -242560872 -749724544 -1566267235 352387150
            268471944 408971140 1359512250 -1823832933</internalNodes>
          <leafValues>
            -1.8463662266731262e-01 5.5908006429672241e-01</leafValues></_>
        <_>
          <internalNodes>
            0 -1 10 -552415022 -653983608 335573201 1397760002
            -100630304 -2113880016 570474747 -74729301</internalNodes>
          <leafValues>
            -1.2416279315948486e-01 6.7202955484390259e-01</leafValues></_>
        <_>
          <internalNodes>
            0 -1 56 -741093166 -620576384 52692437 1364218381
            -1940221824 -1908014052 352706779 -1685093745</internalNodes>
          <leafValues>
            -1.3013368844985962e-01 6.7534631490707397e-01</leafValues></_>
        <_>
          <internalNodes>
            0 -1 24 -754498558 -930794304 159454161 1396916248
            1242531842 71978272 140552970 -261368310</internalNodes>
          <leafValues>
            -2.3633168637752533e-01 4.1243198513984680e-01</leafValues></_>
        <_>
          <internalNodes>
            0 -1 63 -126883769 -754110880 -865189673 291062561
            -507344404 534529 68133539 -489708285</internalNodes>
          <leafValues>
            -1.3821531832218170e-01 6.1411643028259277e-01</leafValues></_>
        <_>
          <internalNodes>
            0 -1 66 -700200518 425800822 -63431496 -1855898176
            -2038507807 624326452 207972504 -1205608757</internalNodes>
          <leafValues>
            -2.0742906630039215e-01 5.0008457899093628e-01</leafValues></_>
        <_>
          <internalNodes>
            0 -1 34 -339029942 1600931474 352329430 1365545513
            -1257897332 4484728 678467803 -868155254</internalNodes>
          <leafValues>
            -2.4074544012546539e-01 4.3763020634651184e-01</leafValues></_>
        <_>
          <internalNodes>
            0 -1 38 -361348414 -758082008 2541651 1394102313 -1822259838
            -868403328 542154427 -817139062</internalNodes>
          <leafValues>
            -1.5429803729057312e-01 5.9006422758102417e-01</leafValues></_>
        <_>
          <internalNodes>
            0 -1 82 -869609266 -750770751 192087506 318842049 -736713596
            -465551536 1107797675 -1953786677</internalNodes>
          <leafValues>
            -1.5950791537761688e-01 6.3931596279144287e-01</leafValues></_>
        <_>
          <internalNodes>
            0 -1 36 -418651761 -772069332 641326097 1363903234
            1554707498 1081782048 336000162 -762842829</internalNodes>
          <leafValues>
            -1.5814274549484253e-01 5.9387886524200439e-01</leafValues></_>
        <_>
          <internalNodes>
            0 -1 4 -228593022 -83123186 -2108264237 1635212932
            -2060803922 -1978905024 1073996558 -741638053</internalNodes>
          <leafValues>
            -1.5648664534091949e-01 5.9460002183914185e-01</leafValues></_></weakClassifiers></_>
    <!-- stage 4 -->
    <_>
      <maxWeakCount>17</maxWeakCount>
      <stageThreshold>-1.5824009180068970e+00</stageThreshold>
      <weakClassifiers>
        <_>
          <internalNodes>
            0 -1 1 -744296230 -775937912 272 1426128921 -1878875992
            -1476395008 687976603 -605333349</internalNodes>
          <leafValues>
            -1.7808219790458679e-01 8.7177598476409912e-01</leafValues></_>
        <_>
          <internalNodes>
            0 -1 9 -125644582 -796704640 266711 1359171793 -1962745694
            -1073577984 2018038747 -104078886</internalNodes>
          <leafValues>
            -1.4879247546195984e-01 8.2260912656784058e-01</leafValues></_>
        <_>
          <internalNodes>
            0 -1 80 -267726632 -266272768 180354 -1660485597 -1023172462
            -805300192 -2003652421 -1148481398</internalNodes>
          <leafValues>
            -1.5322113037109375e-01 8.0581802129745483e-01</leafValues></_>
        <_>
          <internalNodes>
            0 -1 23 -764440510 -203833328 1107398672 -787808047
            -1870552344 -2130505472 -1828695381 -83132257</internalNodes>
          <leafValues>
            -1.7484325170516968e-01 7.4878388643264771e-01</leafValues></_>
        <_>
          <internalNodes>
            0 -1 13 -758134608 1427637396 805310481 -779419619 50496128
            -2080373504 319866539 -778071925</internalNodes>
          <leafValues>
            -1.6282357275485992e-01 7.5126057863235474e-01</leafValues></_>
        <_>
          <internalNodes>
            0 -1 81 -771624824 -644578040 31600851 1607696417
            -1871609726 140827012 -2076927558 -1416425333</internalNodes>
          <leafValues>
            -1.5870830416679382e-01 7.4026668071746826e-01</leafValues></_>
        <_>
          <internalNodes>
            0 -1 70 -922095406 -640055292 268767505 319367707
            -1809834856 -1307574236 -2129432102 -1711062981</internalNodes>
          <leafValues>
            -1.6181924939155579e-01 6.8704068660736084e-01</leafValues></_>
        <_>
          <internalNodes>
            0 -1 53 -768929774 -788487456 -2145095355 1342271617
            -2012044632 4341891 -1761164150 -223667701</internalNodes>
          <leafValues>
            -2.0423159003257751e-01 5.9960687160491943e-01</leafValues></_>
        <_>
          <internalNodes>
            0 -1 35 -234228300 -784228352 -1543090091 285314200
            142125520 -1056674016 386437514 -1991540213</internalNodes>
          <leafValues>
            -1.6921211779117584e-01 7.0787811279296875e-01</leafValues></_>
        <_>
          <internalNodes>
            0 -1 2 -1012145792 1359028369 1660700167 1898031137
            543149719 643171780 1074007755 1113802339</internalNodes>
          <leafValues>
            -2.8796726465225220e-01 4.4064342975616455e-01</leafValues></_>
        <_>
          <internalNodes>
            0 -1 18 -703967024 -359523200 33554673 -645577728 -528170870
            -1035562872 1610654891 -1992604021</internalNodes>
          <leafValues>
            -1.8301835656166077e-01 6.7825162410736084e-01</leafValues></_>
        <_>
          <internalNodes>
            0 -1 40 -755740088 -224388456 11272223 1133248523 1081136520
            439698762 722605464 46830026</internalNodes>
          <leafValues>
            -2.8238663077354431e-01 4.4552597403526306e-01</leafValues></_>
        <_>
          <internalNodes>
            0 -1 54 -9711383 -651222885 1645483137 285347890 1309065344
            101460482 -1039464926 -117192021</internalNodes>
          <leafValues>
            -1.9396243989467621e-01 6.8322449922561646e-01</leafValues></_>
        <_>
          <internalNodes>
            0 -1 33 -668273926 -794754048 618830589 1397163061
            -498823008 -1472170938 336639134 -1960078822</internalNodes>
          <leafValues>
            -1.6789047420024872e-01 8.0702590942382812e-01</leafValues></_>
        <_>
          <internalNodes>
            0 -1 22 -230436616 -799342456 -1610002151 1906123787
            -1605752184 -2005707264 -852385621 -752122853</internalNodes>
          <leafValues>
            -1.3723663985729218e-01 8.0565840005874634e-01</leafValues></_>
        <_>
          <internalNodes>
            0 -1 83 -191112992 -1038008320 67511329 -738156423
            -247765828 -2079030832 -687618153 1476633755</internalNodes>
          <leafValues>
            -2.6217842102050781e-01 4.8335623741149902e-01</leafValues></_>
        <_>
          <internalNodes>
            0 -1 47 -584347438 -1056890799 856764705 1429405697
            -800096088 -771459994 286393995 -2013016053</internalNodes>
          <leafValues>
            -1.8361242115497589e-01 6.6775989532470703e-01</leafValues></_></weakClassifiers></_>
    <!-- stage 5 -->
    <_>
      <maxWeakCount>12</maxWeakCount>
      <stageThreshold>-1.6491481065750122e+00</stageThreshold>
      <weakClassifiers>
        <_>
          <internalNodes>
            0 -1 45 -800354102 -251658240 1075839105 1897889793
            -2013233142 537001984 172682 -1178123638</internalNodes>
          <leafValues>
            -2.4278108775615692e-01 8.3564686775207520e-01</leafValues></_>
        <_>
          <internalNodes>
            0 -1 89 -263991109 -1337720832 4210693 1359298561 163978 0
            297099 -254807670</internalNodes>
          <leafValues>
            -1.7591032385826111e-01 9.1146254539489746e-01</leafValues></_>
        <_>
          <internalNodes>
            0 -1 67 -788332326 1207963904 -1305199853 672440993
            -2010119033 549471235 268436121 -1857294326</internalNodes>
          <leafValues>
            -3.0752015113830566e-01 5.8783477544784546e-01</leafValues></_>
        <_>
          <internalNodes>
            0 -1 30 -803487542 -787464188 33557008 1359020049 -201293816
            -1979186688 -1996353093 -92045285</internalNodes>
          <leafValues>
            -2.4487245082855225e-01 8.1689435243606567e-01</leafValues></_>
        <_>
          <internalNodes>
            0 -1 25 1368523184 1342237729 582037170 1099958416
            -1676300134 172885125 10493987 -1188083169</internalNodes>
          <leafValues>
            -2.8653284907341003e-01 6.5301471948623657e-01</leafValues></_>
        <_>
          <internalNodes>
            0 -1 29 -2141731728 -1860171584 23068753 288692297
            -2079552080 -2147481340 134481544 -233438885</internalNodes>
          <leafValues>
            -2.5275042653083801e-01 7.4068415164947510e-01</leafValues></_>
        <_>
          <internalNodes>
            0 -1 12 -800292325 -737974268 110168080 287384577
            -2118024822 1024 746651659 -1023180637</internalNodes>
          <leafValues>
            -2.1175163984298706e-01 8.0656236410140991e-01</leafValues></_>
        <_>
          <internalNodes>
            0 -1 31 -804863846 1462829568 73404985 288433284 -2052554600
            2098180 -2146401061 -774927318</internalNodes>
          <leafValues>
            -1.7631243169307709e-01 8.5580939054489136e-01</leafValues></_>
        <_>
          <internalNodes>
            0 -1 76 -116751734 1361445138 1140861953 285516874
            -1605335424 450114885 -2140012390 -762609270</internalNodes>
          <leafValues>
            -2.1258363127708435e-01 7.6072919368743896e-01</leafValues></_>
        <_>
          <internalNodes>
            0 -1 73 -939030442 1403863617 1113335856 824246320
            -2142141306 -2139814320 6334410 -946880374</internalNodes>
          <leafValues>
            -1.5682125091552734e-01 8.6027020215988159e-01</leafValues></_>
        <_>
          <internalNodes>
            0 -1 61 -369000294 -796432352 1307320467 -654245816
            -1878855552 -530578908 2048918667 -1475674101</internalNodes>
          <leafValues>
            -2.0317311584949493e-01 7.9150032997131348e-01</leafValues></_>
        <_>
          <internalNodes>
            0 -1 50 -224140385 -752877056 211823616 1342287010
            -2080259967 -1711275002 -2124282749 -1023180597</internalNodes>
          <leafValues>
            -1.9523024559020996e-01 8.2243013381958008e-01</leafValues></_></weakClassifiers></_>
    <!-- stage 6 -->
    <_>
      <maxWeakCount>7</maxWeakCount>
      <stageThreshold>-1.5454542636871338e+00</stageThreshold>
      <weakClassifiers>
        <_>
          <internalNodes>
            0 -1 79 -805257214 -1862139904 268435456 151060485
            -1073741696 -2146957824 33920 -620001205</internalNodes>
          <leafValues>
            -3.3577388525009155e-01 9.2712742090225220e-01</leafValues></_>
        <_>
          <internalNodes>
            0 -1 52 -1072263156 -1543436254 754231400 1493303297
            37490240 146552148 270565522 537854606</internalNodes>
          <leafValues>
            -3.7910071015357971e-01 7.3344969749450684e-01</leafValues></_>
        <_>
          <internalNodes>
            0 -1 15 -805171128 -1876885504 42467345 1097007116 8421512
            -2147478264 68165842 -930601845</internalNodes>
          <leafValues>
            -3.4120708703994751e-01 8.7244611978530884e-01</leafValues></_>
        <_>
          <internalNodes>
            0 -1 75 -1873784623 18956834 539501604 18876432 67240089
            -1940504974 -1533803518 -1303789368</internalNodes>
          <leafValues>
            -3.5842981934547424e-01 7.6576822996139526e-01</leafValues></_>
        <_>
          <internalNodes>
            0 -1 78 1359151242 269035553 640052064 855682083 -1005548408
            -2077730972 1077249154 -2113814526</internalNodes>
          <leafValues>
            -3.7423133850097656e-01 8.0524110794067383e-01</leafValues></_>
        <_>
          <internalNodes>
            0 -1 19 -794533504 268576352 620404256 811670048 -1906753384
            74852180 11538946 38273034</internalNodes>
          <leafValues>
            -5.0333815813064575e-01 6.1125421524047852e-01</leafValues></_>
        <_>
          <internalNodes>
            0 -1 14 -754892654 27299846 543695008 469830659 45089824
            404370432 637570180 -106820984</internalNodes>
          <leafValues>
            -4.3284580111503601e-01 7.8729337453842163e-01</leafValues></_></weakClassifiers></_>
    <!-- stage 7 -->
    <_>
      <maxWeakCount>4</maxWeakCount>
      <stageThreshold>-6.9798702001571655e-01</stageThreshold>
      <weakClassifiers>
        <_>
          <internalNodes>
            0 -1 11 4301833 1073872905 256 131072 11 0 130 1644233218</internalNodes>
          <leafValues>
            -6.1910545825958252e-01 1.</leafValues></_>
        <_>
          <internalNodes>
            0 -1 37 1344339970 -1879046142 36701697 1056 -2144337792
            469769488 -2070879232 185139338</internalNodes>
          <leafValues>
            -5.2142387628555298e-01 1.</leafValues></_>
        <_>
          <internalNodes>
            0 -1 39 8519690 25198592 17 16777216 33408 -2147483648 32804
            1091240066</internalNodes>
          <leafValues>
            -4.7503551840782166e-01 9.4997173547744751e-01</leafValues></_>
        <_>
          <internalNodes>
            0 -1 72 285409410 285347361 179965442 270535712 6554771
            -2139803787 471861520 346686466</internalNodes>
          <leafValues>
            -5.0742948055267334e-01 9.4891130924224854e-01</leafValues></_></weakClassifiers></_></stages>
  <features>
    <_>
      <rect>
        0 0 1 1</rect></_>
    <_>
      <rect>
        0 1 1 1</rect></_>
    <_>
      <rect>
        0 1 4 6</rect></_>
    <_>
      <rect>
        0 2 1 1</rect></_>
    <_>
      <rect>
        0 6 1 1</rect></_>
    <_>
      <rect>
        0 8 1 1</rect></_>
    <_>
      <rect>
        0 9 1 1</rect></_>
    <_>
      <rect>
        0 10 1 1</rect></_>
    <_>
      <rect>
        0 11 1 1</rect></_>
    <_>
      <rect>
        0 12 1 1</rect></_>
    <_>
      <rect>
        0 13 1 1</rect></_>
    <_>
      <rect>
        0 14 1 1</rect></_>
    <_>
      <rect>
        0 15 1 2</rect></_>
    <_>
      <rect>
        0 18 1 1</rect></_>
    <_>
      <rect>
        0 18 2 2</rect></_>
    <_>
      <rect>
        0 19 1 1</rect></_>
    <_>
      <rect>
        0 20 1 1</rect></_>
    <_>
      <rect>
        0 21 1 1</rect></_>
    <_>
      <rect>
        1 0 1 1</rect></_>
    <_>
      <rect>
        1 2 3 5</rect></_>
    <_>
      <rect>
        1 3 4 6</rect></_>
    <_>
      <rect>
        1 6 4 6</rect></_>
    <_>
      <rect>
        1 8 1 1</rect></_>
    <_>
      <rect>
        1 13 1 1</rect></_>
    <_>
      <rect>
        1 14 1 1</rect></_>
    <_>
      <rect>
        1 14 4 3</rect></_>
    <_>
      <rect>
        1 15 1 1</rect></_>
    <_>
      <rect>
        1 21 1 1</rect></_>
    <_>
      <rect>
        2 0 1 1</rect></_>
    <_>
      <rect>
        2 2 2 1</rect></_>
    <_>
      <rect>
        2 8 1 1</rect></_>
    <_>
      <rect>
        2 12 1 1</rect></_>
    <_>
      <rect>
        2 13 1 1</rect></_>
    <_>
      <rect>
        2 18 1 1</rect></_>
    <_>
      <rect>
        2 18 1 2</rect></_>
    <_>
      <rect>
        4 3 1 1</rect></_>
    <_>
      <rect>
        4 6 1 1</rect></_>
    <_>
      <rect>
        4 8 3 5</rect></_>
    <_>
      <rect>
        4 13 1 1</rect></_>
    <_>
      <rect>
        4 14 1 1</rect></_>
    <_>
      <rect>
        4 19 3 1</rect></_>
    <_>
      <rect>
        4 21 1 1</rect></_>
    <_>
      <rect>
        5 1 1 1</rect></_>
    <_>
      <rect>
        5 7 1 1</rect></_>
    <_>
      <rect>
        5 9 1 1</rect></_>
    <_>
      <rect>
        5 21 1 1</rect></_>
    <_>
      <rect>
        6 0 1 1</rect></_>
    <_>
      <rect>
        6 1 1 1</rect></_>
    <_>
      <rect>
        6 3 1 1</rect></_>
    <_>
      <rect>
        6 6 1 1</rect></_>
    <_>
      <rect>
        6 7 1 1</rect></_>
    <_>
      <rect>
        6 8 1 1</rect></_>
    <_>
      <rect>
        6 9 1 3</rect></_>
    <_>
      <rect>
        6 10 1 1</rect></_>
    <_>
      <rect>
        6 15 1 1</rect></_>
    <_>
      <rect>
        6 16 1 1</rect></_>
    <_>
      <rect>
        6 17 1 1</rect></_>
    <_>
      <rect>
        6 18 1 1</rect></_>
    <_>
      <rect>
        6 20 1 1</rect></_>
    <_>
      <rect>
        6 21 1 1</rect></_>
    <_>
      <rect>
        7 0 1 1</rect></_>
    <_>
      <rect>
        7 0 2 1</rect></_>
    <_>
      <rect>
        7 2 1 1</rect></_>
    <_>
      <rect>
        7 6 1 1</rect></_>
    <_>
      <rect>
        7 8 1 1</rect></_>
    <_>
      <rect>
        7 9 1 1</rect></_>
    <_>
      <rect>
        7 10 2 4</rect></_>
    <_>
      <rect>
        7 11 2 2</rect></_>
    <_>
      <rect>
        7 19 1 1</rect></_>
    <_>
      <rect>
        7 20 1 1</rect></_>
    <_>
      <rect>
        7 20 2 1</rect></_>
    <_>
      <rect>
        7 21 1 1</rect></_>
    <_>
      <rect>
        8 8 2 4</rect></_>
    <_>
      <rect>
        8 9 1 2</rect></_>
    <_>
      <rect>
        8 10 1 1</rect></_>
    <_>
      <rect>
        8 12 2 4</rect></_>
    <_>
      <rect>
        8 15 1 1</rect></_>
    <_>
      <rect>
        8 19 1 1</rect></_>
    <_>
      <rect>
        9 6 1 2</rect></_>
    <_>
      <rect>
        9 13 1 1</rect></_>
    <_>
      <rect>
        9 21 1 1</rect></_>
    <_>
      <rect>
        10 11 1 1</rect></_>
    <_>
      <rect>
        10 16 1 1</rect></_>
    <_>
      <rect>
        11 7 1 1</rect></_>
    <_>
      <rect>
        11 8 1 1</rect></_>
    <_>
      <rect>
        11 9 1 1</rect></_>
    <_>
      <rect>
        11 10 1 1</rect></_>
    <_>
      <rect>
        11 12 1 1</rect></_>
    <_>
      <rect>
        11 13 1 1</rect></_>
    <_>
      <rect>
        11 14 1 1</rect></_>
    <_>
      <rect>
        11 19 1 1</rect></_>
    <_>
      <rect>
        11 21 1 1</rect></_></features></cascade>
</opencv_storage>
